svm_type c_svc
kernel_type rbf
gamma 0
nr_class 3
total_sv 150
rho 0 0 0
label 0 1 2
nr_sv 50 50 50
SV
1 1 0:5 1:3 2:1 3:0 23908256:0 
1 1 0:4 1:3 2:1 3:0 23908400:0 
1 1 0:4 1:3 2:1 3:0 23908560:0 
1 1 0:4 1:3 2:1 3:0 23908656:0 
1 1 0:5 1:3 2:1 3:0 23908752:0 
1 1 0:5 1:3 2:1 3:0 23908928:0 
1 1 0:4 1:3 2:1 3:0 23909024:0 
1 1 0:5 1:3 2:1 3:0 23909248:0 
1 1 0:4 1:2 2:1 3:0 23909344:0 
1 1 0:4 1:3 2:1 3:0 23909440:0 
1 1 0:5 1:3 2:1 3:0 3747328:1.1812746e-316 
1 1 0:4 1:3 2:1 3:0 80:2.4209217e-322 
1 1 0:4 1:3 2:1 3:0 23909536:0 
1 1 0:4 1:3 2:1 3:0 0:0 
1 1 0:5 1:4 2:1 3:0 23910048:0 
1 1 0:5 1:4 2:1 3:0 23910144:0 
1 1 0:5 1:3 2:1 3:0 23910240:0 
1 1 0:5 1:3 2:1 3:0 23910336:0 
1 1 0:5 1:3 2:1 3:0 23910432:0 
1 1 0:5 1:3 2:1 3:0 0:0 
1 1 0:5 1:3 2:1 3:0 23909728:0 
1 1 0:5 1:3 2:1 3:0 23909824:0 
1 1 0:4 1:3 2:1 3:0 0:2.4209217e-322 
1 1 0:5 1:3 2:1 3:0 23911200:0 
1 1 0:4 1:3 2:1 3:0 23911296:0 
1 1 0:5 1:3 2:1 3:0 23911392:0 
1 1 0:5 1:3 2:1 3:0 23911488:0 
1 1 0:5 1:3 2:1 3:0 23911584:0 
1 1 0:5 1:3 2:1 3:0 23911680:0 
1 1 0:4 1:3 2:1 3:0 23911776:0 
1 1 0:4 1:3 2:1 3:0 23911872:0 
1 1 0:5 1:3 2:1 3:0 23911968:0 
1 1 0:5 1:4 2:1 3:0 23912064:0 
1 1 0:5 1:4 2:1 3:0 0:0 
1 1 0:4 1:3 2:1 3:0 23910992:0 
1 1 0:5 1:3 2:1 3:0 0:0 
1 1 0:5 1:3 2:1 3:0 23910624:0 
1 1 0:4 1:3 2:1 3:0 23910720:0 
1 1 0:4 1:3 2:1 3:0 23912160:0 
1 1 0:5 1:3 2:1 3:0 23912256:0 
1 1 0:5 1:3 2:1 3:0 0:2.4209217e-322 
1 1 0:4 1:2 2:1 3:0 23913536:0 
1 1 0:4 1:3 2:1 3:0 23913632:0 
1 1 0:5 1:3 2:1 3:0 23913728:0 
1 1 0:5 1:3 2:1 3:0 23913824:0 
1 1 0:4 1:3 2:1 3:0 23913920:0 
1 1 0:5 1:3 2:1 3:0 23914016:0 
1 1 0:4 1:3 2:1 3:0 23914112:0 
1 1 0:5 1:3 2:1 3:0 23914208:0 
1 1 0:5 1:3 2:1 3:0 23914304:0 
-1 1 0:7 1:3 2:4 3:1 23914400:0 
-1 1 0:6 1:3 2:4 3:1 23914496:0 
-1 1 0:6 1:3 2:4 3:1 23914592:0 
-1 1 0:5 1:2 2:4 3:1 23914688:0 
-1 1 0:6 1:2 2:4 3:1 23914784:0 
-1 1 0:5 1:2 2:4 3:1 23914880:0 
-1 1 0:6 1:3 2:4 3:1 23914976:0 
-1 1 0:4 1:2 2:3 3:1 23915072:0 
-1 1 0:6 1:2 2:4 3:1 23915168:0 
-1 1 0:5 1:2 2:3 3:1 23915264:0 
-1 1 0:5 1:2 2:3 3:1 23915360:0 
-1 1 0:5 1:3 2:4 3:1 23915456:0 
-1 1 0:6 1:2 2:4 3:1 23915552:0 
-1 1 0:6 1:2 2:4 3:1 23915648:0 
-1 1 0:5 1:2 2:3 3:1 23915744:0 
-1 1 0:6 1:3 2:4 3:1 23915840:0 
-1 1 0:5 1:3 2:4 3:1 23915936:0 
-1 1 0:5 1:2 2:4 3:1 0:0 
-1 1 0:6 1:2 2:4 3:1 23912448:0 
-1 1 0:5 1:2 2:3 3:1 23912544:0 
-1 1 0:5 1:3 2:4 3:1 23912640:0 
-1 1 0:6 1:2 2:4 3:1 23912736:0 
-1 1 0:6 1:2 2:4 3:1 23912832:0 
-1 1 0:6 1:2 2:4 3:1 23912928:0 
-1 1 0:6 1:2 2:4 3:1 0:1 
-1 1 0:6 1:3 2:4 3:1 23913024:0 
-1 1 0:6 1:2 2:4 3:1 23913120:0 
-1 1 0:6 1:3 2:5 3:1 23913216:0 
-1 1 0:6 1:2 2:4 3:1 0:0 
-1 1 0:5 1:2 2:3 3:1 23918240:0 
-1 1 0:5 1:2 2:3 3:1 23918336:0 
-1 1 0:5 1:2 2:3 3:1 23918432:0 
-1 1 0:5 1:2 2:3 3:1 23918528:0 
-1 1 0:6 1:2 2:5 3:1 23918624:0 
-1 1 0:5 1:3 2:4 3:1 23918720:0 
-1 1 0:6 1:3 2:4 3:1 23918816:0 
-1 1 0:6 1:3 2:4 3:1 23918912:0 
-1 1 0:6 1:2 2:4 3:1 23919008:0 
-1 1 0:5 1:3 2:4 3:1 23919104:0 
-1 1 0:5 1:2 2:4 3:1 23919200:0 
-1 1 0:5 1:2 2:4 3:1 23919296:0 
-1 1 0:6 1:3 2:4 3:1 23919392:0 
-1 1 0:5 1:2 2:4 3:1 23919488:0 
-1 1 0:5 1:2 2:3 3:1 23919584:0 
-1 1 0:5 1:2 2:4 3:1 23919680:0 
-1 1 0:5 1:3 2:4 3:1 23919776:0 
-1 1 0:5 1:2 2:4 3:1 23919872:0 
-1 1 0:6 1:2 2:4 3:1 23919968:0 
-1 1 0:5 1:2 2:3 3:1 23920064:0 
-1 1 0:5 1:2 2:4 3:1 23920160:0 
-1 -1 0:6 1:3 2:6 3:2 23920256:0 
-1 -1 0:5 1:2 2:5 3:1 23920352:0 
-1 -1 0:7 1:3 2:5 3:2 23920448:0 
-1 -1 0:6 1:2 2:5 3:1 23920544:0 
-1 -1 0:6 1:3 2:5 3:2 23920640:0 
-1 -1 0:7 1:3 2:6 3:2 23920736:0 
-1 -1 0:4 1:2 2:4 3:1 23920832:0 
-1 -1 0:7 1:2 2:6 3:1 23920928:0 
-1 -1 0:6 1:2 2:5 3:1 23921024:0 
-1 -1 0:7 1:3 2:6 3:2 23921120:0 
-1 -1 0:6 1:3 2:5 3:2 23921216:0 
-1 -1 0:6 1:2 2:5 3:1 23921312:0 
-1 -1 0:6 1:3 2:5 3:2 23921408:0 
-1 -1 0:5 1:2 2:5 3:2 23921504:0 
-1 -1 0:5 1:2 2:5 3:2 23921600:0 
-1 -1 0:6 1:3 2:5 3:2 23921696:0 
-1 -1 0:6 1:3 2:5 3:1 23921792:0 
-1 -1 0:7 1:3 2:6 3:2 23921888:0 
-1 -1 0:7 1:2 2:6 3:2 23921984:0 
-1 -1 0:6 1:2 2:5 3:1 23922080:0 
-1 -1 0:6 1:3 2:5 3:2 23922176:0 
-1 -1 0:5 1:2 2:4 3:2 23922272:0 
-1 -1 0:7 1:2 2:6 3:2 23922368:0 
-1 -1 0:6 1:2 2:4 3:1 23922464:0 
-1 -1 0:6 1:3 2:5 3:2 23922560:0 
-1 -1 0:7 1:3 2:6 3:1 23922656:0 
-1 -1 0:6 1:2 2:4 3:1 23922752:0 
-1 -1 0:6 1:3 2:4 3:1 23922848:0 
-1 -1 0:6 1:2 2:5 3:2 23922944:0 
-1 -1 0:7 1:3 2:5 3:1 23923040:0 
-1 -1 0:7 1:2 2:6 3:1 23923136:0 
-1 -1 0:7 1:3 2:6 3:2 0:0 
-1 -1 0:6 1:2 2:5 3:2 23916128:0 
-1 -1 0:6 1:2 2:5 3:1 23916224:0 
-1 -1 0:6 1:2 2:5 3:1 23916320:0 
-1 -1 0:7 1:3 2:6 3:2 23916416:0 
-1 -1 0:6 1:3 2:5 3:2 23916512:0 
-1 -1 0:6 1:3 2:5 3:1 23916608:0 
-1 -1 0:6 1:3 2:4 3:1 23916704:0 
-1 -1 0:6 1:3 2:5 3:2 23916800:0 
-1 -1 0:6 1:3 2:5 3:2 23916896:0 
-1 -1 0:6 1:3 2:5 3:2 23916992:0 
-1 -1 0:5 1:2 2:5 3:1 23917088:0 
-1 -1 0:6 1:3 2:5 3:2 23917184:0 
-1 -1 0:6 1:3 2:5 3:2 23917280:0 
-1 -1 0:6 1:3 2:5 3:2 23917376:0 
-1 -1 0:6 1:2 2:5 3:1 23917472:0 
-1 -1 0:6 1:3 2:5 3:2 23917568:0 
-1 -1 0:6 1:3 2:5 3:2 23917664:0 
-1 -1 0:5 1:3 2:5 3:1 23917760:0 
